#include "definition.h"

DTYPE mean[NUM_INPUT] =
{70.16481481481466, 210.51682413904726, 228.25155621890565,
		0.0, 2.0285608992076956, 240.12535470794145,
	    173.94884511620302, 203.56143076285215, 0.0,
	    2.2365948037590235, 588.8964805601624, 248.7241511817404,
	    308.60802545605276, 0.0, 2.2305140961857637};

DTYPE std_dev[NUM_INPUT] =
{380.23535953255714, 155.6019315402097, 171.07610918939977,
		0.0, 1.2079603907005056, 284.0452159106902,
		88.12958850964137, 118.00027451767768, 0.0,
		1.2484653515580149, 317.1736174832943, 119.34428428677252,
		172.69722899720597, 0.0, 1.2303334198993097};

DTYPE weights_0[NUM_INPUT][NUM_LAYER_0] =
{{-0.77272135,  0.6336234 , -0.03167424, -0.27111897, -0.755616  ,
        0.08177504,  0.49109012, -0.86284465,  1.2355137 , -0.2617206 ,
        0.22622488,  0.15353976,  0.21963671,  0.62933856, -0.5811798 ,
       -0.9668644 ,  0.25584656, -0.5461075 , -0.02504845,  1.0129498 ,
        0.6521454 ,  0.09550103, -0.81487983,  0.3952569 , -1.1360359 ,
       -0.30365115, -0.22902064, -0.52618754, -0.15483876,  0.08190411},
      {0.84919804,  0.38845685,  0.20330209,  0.19774342,  0.39450634,
       -0.15687339, -0.5356703 ,  0.06047573,  0.5136577 ,  0.42048725,
       -0.31471846, -0.05693322,  0.18768515, -0.59463   , -0.00519031,
       -0.09183094,  0.68445665,  0.24864075,  0.3320303 , -0.31993207,
       -0.18463247, -0.19537243, -0.30692077, -0.4573454 , -0.10580801,
        0.00871994, -0.38764918,  0.6356436 ,  0.00741391,  0.39977187},
      {0.44552204,  0.3650225 ,  0.11068708,  0.0503292 ,  0.35121596,
       -0.15848698, -0.12823488,  0.05121895,  0.15719557, -0.05409482,
       -0.33886862,  0.21235056,  0.42328876, -0.0375481 ,  0.26006156,
        0.29787958, -0.02059388,  0.31065637,  0.32868308, -0.42184258,
       -0.5294237 ,  0.289295  , -0.0054245 ,  0.05869498,  0.21837388,
       -0.55058146,  0.33418727,  0.30950332,  0.05263172,  0.00064479},
      {-0.16104819, -0.29672772, -0.26967952, -0.24884494, -0.25098133,
        0.2516181 ,  0.0412688 ,  0.02244011, -0.24516986, -0.24603279,
       -0.03229108, -0.10993242,  0.11427838,  0.30733347, -0.28670132,
       -0.3234739 , -0.16106394, -0.31685808, -0.27618825, -0.03072691,
       -0.13728479, -0.02553034,  0.11181489,  0.1140117 , -0.03499049,
        0.2894656 , -0.12418707, -0.20445243, -0.18600227, -0.09824303},
      {-0.45228416, -0.1798468 , -0.3381232 , -0.3225826 , -0.19837697,
        0.03376495, -0.0989514 ,  0.07704961,  0.06178505, -0.197498  ,
       -0.05907183,  0.22893718, -0.11652148,  0.02701894,  0.10967397,
       -0.27471814,  0.09146157,  0.02825083, -0.10880284,  0.12886128,
        0.06738836, -0.40499768,  0.0783214 , -0.10794695,  0.2256318 ,
       -0.17673676,  0.05689277,  0.17467569, -0.20362607, -0.10999412},
      {-0.16691093, -0.2423604 , -0.47600737,  0.18141818,  0.43638617,
       -0.13761209, -0.06196913,  0.10630795,  0.24180129,  0.6786926 ,
        0.4347659 ,  0.6178742 , -0.5630256 ,  0.15809038,  0.22448231,
        0.50251365,  0.26561442,  0.27844736, -0.5550006 , -0.3502221 ,
        0.21877459,  0.19563045, -0.34248388,  0.51193345,  0.26522782,
       -0.7467037 , -0.21451685, -0.418142  , -0.21845959,  0.50698364},
      {-0.53994715,  0.02197232, -0.18062803, -0.08967628,  0.17110567,
        0.16675273, -0.38242513,  0.28721872,  0.33544478, -0.10086711,
       -0.16393018, -0.46367767, -0.74347925,  0.24466302,  0.25716883,
        0.56126386, -0.6423467 ,  0.35427216, -0.44649255,  0.1887301 ,
        0.16207974,  0.16709647, -0.1500025 ,  0.04056166,  0.5984996 ,
       -0.3447729 ,  0.084617  , -0.12223072, -0.72510505, -0.7579967 },
      {-0.2544386 ,  0.17984828,  0.11300824,  0.2090608 , -0.18559647,
        0.13221695, -0.28818664,  0.3559485 , -0.15002643,  0.20219623,
        0.0327979 , -0.3606037 , -0.36383462,  0.14207765,  0.48263878,
        0.5196569 , -0.43910193,  0.3799024 , -0.22430691, -0.13145709,
        0.13966082,  0.02820196, -0.01192395,  0.03659026,  0.00431816,
        0.16757773,  0.03849485,  0.11275397, -0.3663062 , -0.43291032},
      {0.05831087,  0.0532251 ,  0.08995381, -0.22722483,  0.27940035,
       -0.35199797,  0.06668749,  0.00276071, -0.27766198,  0.19402504,
       -0.27339166,  0.34775317, -0.08018613,  0.00905693,  0.13150176,
       -0.25212747, -0.14849806,  0.17527747,  0.25990313, -0.35597843,
        0.16692841, -0.05844614, -0.35811633,  0.19348311,  0.105813  ,
       -0.09006479, -0.01325163,  0.03229335,  0.3239705 ,  0.02421522},
      {0.2003882 , -0.50021183,  0.02359663, -0.37254852,  0.0073531 ,
        0.1518046 , -0.25987944, -0.07460777, -0.06600741, -0.18788144,
       -0.417851  , -0.4271297 ,  0.01844799,  0.7367635 ,  0.5472599 ,
        0.2570784 , -0.00115725, -0.52192944,  0.03296104,  0.11193885,
        0.7063069 , -0.2606567 ,  0.29355374, -0.2923475 ,  0.5190032 ,
       -0.07588913, -0.14266585, -0.5673098 , -0.20625268, -0.19512141},
      {-0.02317922, -0.4964381 , -0.45884785, -0.06557082, -0.30153894,
       -0.17372726,  0.94810784,  0.2818583 , -0.6235208 , -0.3634257 ,
        0.37927812, -0.6826683 , -0.304816  , -0.4555444 ,  0.04136023,
       -0.14664224, -0.79064316, -0.3681382 , -0.12140317,  0.43016246,
       -0.48047024,  0.2456815 ,  0.214126  ,  0.62978536,  0.26800898,
       -0.07630464, -0.39332813,  0.07016252, -0.19894108, -0.15574335},
      {0.3492943 ,  0.0051671 ,  0.55350524,  0.7124881 , -0.35142112,
        0.13093004, -0.18326196, -0.5942539 ,  0.1772328 , -0.41530865,
       -0.5032617 , -0.04861777,  0.1491208 ,  0.3145114 ,  0.3564718 ,
        0.24718292, -0.26547104,  0.5132075 , -0.30965507,  0.04224706,
       -0.02639962,  0.13040753, -0.50337124, -0.15503095, -0.16662356,
       -0.5831648 ,  0.3519376 , -0.22293362,  0.10087898, -0.2965332 },
      {0.05732087,  0.10369617,  0.45415193,  0.4040871 , -0.26401666,
       -0.03966597,  0.367763  ,  0.07888478, -0.13520893, -0.43497413,
       -0.12113901,  0.49520305,  0.12227068,  0.60130274, -0.3149961 ,
        0.18732394, -0.17846778, -0.08026512, -0.14094184,  0.19711284,
        0.18805444, -0.03573132,  0.22936505, -0.4017561 , -0.21179718,
       -0.23436858, -0.17488061, -0.3520752 ,  0.35029915, -0.18994395},
      {0.23279941,  0.25855052, -0.03072301, -0.2739241 , -0.03488055,
        0.02275491, -0.04521322, -0.09002501,  0.17706287,  0.24376804,
       -0.2336781 ,  0.36300796, -0.33595595,  0.21018589, -0.18649119,
        0.05262849,  0.19817919, -0.11396   ,  0.11356929,  0.22161251,
        0.25653428,  0.14845365,  0.13585669,  0.08855024,  0.31198716,
        0.16611826, -0.15021884, -0.10227251,  0.01546326, -0.09211093},
      {-0.20502977, -0.564483  , -0.26663825, -0.29812187, -0.16460148,
        0.85708815, -0.32117745,  0.6633649 , -0.4360316 ,  0.14398138,
       -0.17837982, -0.45683026,  0.13254246,  0.23518266, -0.08246797,
       -0.01201728, -0.23695168, -0.07262327, -0.04104096,  0.7253245 ,
        0.51521516, -0.32276827, -0.17642418, -0.30589408,  0.3140648 ,
        0.21919799,  0.30891022,  0.12111434,  0.05588989, -0.05807799}};

DTYPE weights_1[NUM_LAYER_0][NUM_LAYER_1] =
{{ 0.25777042,  0.67523366, -0.1598064 ,  0.87326586, -0.35784075,
        0.41694847, -0.06489042,  0.05179524, -0.4785963 ,  0.3249627 },
      { 0.525447  ,  0.19168612,  0.17267479,  0.45833367,  0.01513082,
       -0.54329735, -0.3640314 ,  0.56463677, -0.04220215,  0.38472998},
      {0.39821246,  0.87643766, -0.28902724,  0.7316208 ,  0.2048775 ,
       -0.149121  , -0.04081621, -0.22214359,  0.13414316,  0.42810342},
      {0.7986637 ,  0.5858896 , -0.03669666,  0.3625662 ,  0.46113265,
        0.04875788,  0.3435038 , -0.17525715, -0.3412748 ,  0.47314027},
      {-0.07894485, -0.42049676,  0.37635973,  0.16931236, -0.3468337 ,
        0.38573772, -0.66494197,  0.14018919, -0.46119392,  0.42194736},
      {0.54112875, -0.00179012,  0.24844167,  0.13512301, -0.12805809,
        0.11328754, -0.6645333 , -0.23824517,  0.43716922, -0.23176603},
      {0.55428684,  0.18259874,  0.14898024, -0.03738065, -0.13160154,
        0.7033785 ,  0.9580637 ,  0.10327578,  0.06739161, -0.11506443},
      {-0.02339373, -0.22282723, -0.44257015, -0.26459017,  0.4228773 ,
        0.6864646 , -0.08954806, -0.33514634,  0.6417458 ,  0.6806695 },
      {1.0477018 , -0.40182763,  0.7945036 ,  0.0181071 , -0.00499003,
       -0.6712398 , -0.43393415,  0.07881035, -0.01793104,  0.22097827},
      {-0.33676046, -0.25538602,  0.731346  ,  0.12083443,  0.12471726,
        0.23226126, -0.3439283 , -0.1603905 , -0.11597347,  0.41040346},
      {-0.1177633 , -0.08661027,  0.49671626, -0.20905536, -0.25655293,
       -0.05077042,  0.8252287 , -0.0475992 ,  0.48077846,  0.1337069 },
      {-0.23042683,  0.638418  ,  0.8979474 ,  0.15024501,  0.15533856,
       -0.39381665,  0.31940013,  0.16598126, -0.30551997,  0.02700024},
      {-0.19931981,  0.3545243 , -0.4334389 ,  0.7829874 , -0.39348835,
        0.08491924,  0.24160065, -0.07992645, -0.35020724, -0.12682895},
      {0.74011374,  0.28185523,  0.17344822,  0.25878218,  0.59473497,
       -0.17065543, -0.01169015,  0.57421637,  0.6754883 ,  0.11158285},
      {0.1923178 , -0.09580892, -0.19012411, -0.23457925,  0.6381082 ,
        0.5291901 ,  0.13198902, -0.04068934,  0.2646514 ,  0.5882479 },
      {-0.11998883,  0.65781254, -0.36210242, -0.585466  ,  0.6761474 ,
        0.44767773, -0.171733  , -0.24007303,  0.2029742 ,  0.632301  },
      {0.21896015,  0.1513793 ,  0.79475623,  0.711565  , -0.19940522,
       -0.47129172, -0.12051953, -0.20313324, -0.23377895,  0.10002186},
      {0.15429373,  0.2798739 , -0.30174023, -0.13170156,  0.33199   ,
       -0.01218191, -0.36257195, -0.22854428, -0.17660011,  0.9860461 },
      {-0.27261302,  0.09020025, -0.09092712,  0.73271   , -0.04755973,
        0.10951061, -0.2028946 , -0.3501946 , -0.22259985, -0.21446416},
      {0.8489751 , -0.51875955, -0.14742637,  0.20406431, -0.2908626 ,
        0.74675566,  0.36437455,  0.4287076 ,  0.58203787, -0.399669  },
      {0.8205108 , -0.2799027 ,  0.5579354 , -0.21726826,  0.4865028 ,
       -0.10663969, -0.20622551,  0.00927883,  0.751017  , -0.16581136},
      {0.164929  ,  0.34058744,  0.29123062, -0.06115778, -0.09335403,
       -0.4429591 ,  0.15719339,  0.22237116, -0.21697228, -0.22415066},
      {-0.04673544,  0.43891755, -0.4862215 ,  0.04152783,  0.20213595,
        0.8027141 ,  0.19794688, -0.35484287,  0.09697865, -0.06376468},
      {-0.19061963,  0.07973279,  0.5370942 , -0.27723795,  0.04304104,
       -0.04125486,  1.0415881 ,  0.08553564,  0.3723019 ,  0.00808054},
      {0.1716719 , -0.10984682, -0.30632943, -0.37065458, -0.14746225,
        1.1108023 , -0.38900262, -0.22300184,  0.6322215 ,  0.5135559 },
      {-0.381074  , -0.6501986 ,  0.11563575,  0.4080289 , -0.24338362,
        0.44225523, -0.13127059, -0.4851444 ,  0.67728007,  0.06058036},
      {0.54254913,  0.40565732, -0.19283862, -0.18313915, -0.01832789,
        0.32957485,  0.10731528,  0.10887631, -0.2322051 , -0.06000737},
      {0.1283942 ,  0.04106729, -0.21628395,  0.7962936 , -0.5802742 ,
        0.47717038, -0.5734978 ,  0.1054075 ,  0.02372307,  0.15245967},
      {-0.5674598 ,  0.48376217, -0.28853175,  0.27513808, -0.10300406,
        0.1618043 ,  0.20231117, -0.18499528, -0.21016043,  0.00069479},
      {-0.5002481 , -0.09629196,  0.7186586 ,  0.5670283 ,  0.21300854,
       -0.05314437,  0.19927423, -0.0061462 , -0.16137676, -0.24845104}};

DTYPE output_weights[NUM_LAYER_1][NUM_OUTPUT] =
{{1.3912882 ,  0.01749601, -0.3114388 , -0.25554776,  0.25676438,
       -0.7569244 , -1.3932208 ,  0.8492537 ,  0.05960836},
       {-0.44656962,  0.6045113 , -0.37469038,  1.165928  ,  0.71874344,
       -0.06267834, -0.9608317 , -0.39014834, -0.71453506},
       {-0.04747593, -0.7550017 ,  1.83394   , -0.48475942, -0.14463887,
       -0.30360213, -0.6843117 ,  0.48822287, -0.04441233},
       {0.45583904, -0.15822679,  0.1073034 ,  0.7297784 , -0.25819778,
        1.8653483 , -0.3790236 , -0.6403312 , -0.3483917 },
        {0.00530947, -0.36704874, -0.5861873 , -0.10372905,  1.1565548 ,
       -0.08244406, -0.09286324, -0.21530993,  0.8626778 },
       {-0.17951694,  0.9409842 , -0.9480129 , -0.22960015, -1.0657896 ,
       -0.2285655 ,  1.0072562 , -0.67396003,  1.0051472 },
       {-1.1562877 , -0.5978637 ,  0.28847903,  0.9868844 ,  0.00702118,
       -0.77292055,  1.4773179 ,  1.0703901 , -0.674734  },
       {0.08604989, -0.12707774, -0.27645427, -0.1458517 ,  0.47046408,
       -0.16129592, -0.5816658 ,  0.6617073 , -0.6526343 },
       {0.6276673 , -0.63674045, -0.8362085 , -0.61922956, -0.24088119,
       -0.11706641,  0.48597577,  0.18140334,  1.2975925 },
       {-0.6531778 ,  1.0958198 ,  0.20351635, -0.8503889 ,  0.868735  ,
        0.3214964 , -0.3106222 , -0.7995337 , -0.04559016}};

DTYPE layer_0_bias[NUM_LAYER_0] =
{0.033759613, 0.29989222, 0.53582704, 0.44151366, 0.13385314, -0.24702233,
	-0.01824621, -0.10889837, 0.08649501, -0.055174932, 0.12452262, 0.15813392,
	-0.0051359395, 0.09618034, 0.19330698, 0.086503506, -0.10020636, -0.025293404,
	-0.24432124, 0.17506923, -0.2596061, -0.30707338, 0.378718, 0.05405903,
	-0.13298851, -0.14767727, 0.08395953, -0.18741599, 0.17983018, -0.12610313};

DTYPE layer_1_bias[NUM_LAYER_1] =
{0.38204777, 0.38522726, 0.14463076, -0.05176803, 0.012789374,
	0.55376405, 1.3210536, 0.16052203, 0.23460875, -0.14346945};

DTYPE output_bias[NUM_OUTPUT] =
{-0.08821623, 0.21597032, -0.03516979, 0.3757005, -0.5781835, -0.23114447, 0.32810342, 0.22652656, -0.21355763};

